   0.70   -0.71    0.01
   0.51   -0.28   -0.23
   0.92   -0.65   -0.28
   0.60   -0.19   -0.42
   0.71   -0.65   -0.06
   0.62   -0.34   -0.28
   0.62   -0.45   -0.17
   0.49   -0.37   -0.13
   0.20    0.22   -0.42
   0.72    0.08   -0.80
   0.32    0.03   -0.35
   0.68   -0.18   -0.50
   0.71   -0.48   -0.23
   0.10   -0.15    0.05
   0.01    0.19   -0.20
  -0.07    0.45   -0.38
   1.66   -1.47   -0.18
   2.10   -1.63   -0.47
   1.83   -1.45   -0.38
   1.61   -1.24   -0.37
   1.39   -1.17   -0.22
   1.18   -0.97   -0.21
   1.20   -0.84   -0.37
   0.97   -0.73   -0.24
   0.00    0.00    0.00
   0.00    0.00    0.00
   0.00    0.00    0.00
   0.00    0.00    0.00
   0.28   -0.11   -0.17
   1.06   -0.94   -0.11
   0.53   -0.27   -0.26
   0.55   -0.51   -0.04
   0.83   -0.70   -0.12
   0.52   -0.29   -0.23
   1.08   -1.04   -0.04
   1.29   -1.20   -0.09
  -1.10    1.90   -0.80
   0.90   -0.50   -0.40
   1.24   -0.97   -0.27
  -0.12    0.87   -0.75
   1.82   -1.19   -0.63
   1.93   -1.20   -0.73
  -1.22    1.76   -0.54
  -0.13    0.76   -0.63
   1.88   -1.45   -0.43
   3.25   -2.81   -0.44
   1.02   -0.61   -0.41
   1.90   -1.59   -0.31
   1.37   -0.76   -0.60
   1.62   -1.12   -0.50
   1.75   -1.83    0.09
   1.96   -1.62   -0.34
   0.00    0.00    0.00
   0.00    0.00    0.00
   0.00    0.00    0.00
   0.00    0.00    0.00
   0.76   -0.49   -0.27
   0.82   -0.66   -0.16
   0.90   -0.70   -0.20
   0.60   -0.72    0.12
   1.28   -1.03   -0.25
   1.41   -1.08   -0.33
   1.45   -1.19   -0.27
   0.41   -0.14   -0.27
   0.63    0.08   -0.71
   0.20    0.55   -0.75
  -0.25    1.09   -0.84
  -0.80    0.69    0.11
  -0.11    0.97   -0.86
   0.04    0.68   -0.72
  -0.04    0.55   -0.51
   0.95   -0.63   -0.32
   1.75   -1.42   -0.33
   2.87   -2.39   -0.47
   1.33   -1.18   -0.15
   1.35   -1.21   -0.14
   1.58   -1.24   -0.34
   1.70   -1.21   -0.48
   2.60   -2.19   -0.40
   1.20   -0.99   -0.21
   0.00    0.00    0.00
   0.00    0.00    0.00
   0.00    0.00    0.00
   0.00    0.00    0.00
   0.93   -0.81   -0.12
   0.52   -0.40   -0.12
   0.99   -0.70   -0.29
   0.86   -0.60   -0.26
   0.80   -0.72   -0.08
   0.33   -0.55    0.22
   0.72   -0.12   -0.60
   1.94   -1.79   -0.15
   1.12   -0.57   -0.55
  -1.36    2.16   -0.80
   0.33   -0.30   -0.03
   0.48    0.31   -0.79
  -0.75    1.39   -0.64
   0.42   -0.12   -0.30
   0.53    0.04   -0.57
  -1.66    2.55   -0.89
   1.57   -0.97   -0.60
   0.87   -0.48   -0.39
   3.61   -3.09   -0.52
   2.84   -2.18   -0.66
   1.34   -0.97   -0.37
   1.59   -0.88   -0.71
   1.47   -0.94   -0.53
   2.03   -2.05    0.02
   0.00    0.00    0.00
   0.00    0.00    0.00
   0.00    0.00    0.00
   0.00    0.00    0.00
   0.42   -0.18   -0.24
   1.12   -0.85   -0.27
   0.70   -0.86    0.17
   0.13    0.12   -0.25
   4.32   -3.82   -0.50
   3.86   -2.72   -1.14
   6.15   -4.26   -1.89
   6.38   -4.58   -1.80
   5.15   -2.87   -2.27
   2.92   -0.22   -2.70
  -8.13   11.54   -3.40
  -0.86    5.23   -4.37
  -3.46   11.32   -7.86
  -6.55   15.76   -9.21
  -6.92   -5.42   12.34
   0.72    4.42   -5.14
   0.55    3.33   -3.89
   3.51   -0.00   -3.51
   5.95   -3.86   -2.09
   0.80    1.40   -2.20
   2.95    0.83   -3.78
  14.36  -10.19   -4.17
  16.01  -14.08   -1.93
   5.57   -4.18   -1.39
   0.00    0.00    0.00
   0.00    0.00    0.00
   0.00    0.00    0.00
   0.00    0.00    0.00
  -0.15   -0.34    0.49
   0.85   -0.64   -0.21
   0.86   -0.68   -0.18
   1.15   -1.03   -0.12
   0.24   -2.77    2.53
   3.19   -6.11    2.92
   0.88   -2.46    1.57
   3.32   -3.09   -0.23
   7.61   -5.85   -1.76
  10.24   -8.14   -2.10
   2.44    1.13   -3.58
   0.94    6.16   -7.10
   1.08    9.59  -10.67
  -6.05   18.52  -12.47
 -11.38    0.68   10.70
  -2.70   10.23   -7.53
   1.76    3.86   -5.62
   5.90   -3.30   -2.60
   8.48   -6.10   -2.38
   7.57   -5.19   -2.38
   6.05   -2.11   -3.93
   6.47   -3.40   -3.06
   4.75   -4.30   -0.45
   2.15   -0.59   -1.56
   0.00    0.00    0.00
   0.00    0.00    0.00
   0.00    0.00    0.00
   0.00    0.00    0.00
   0.77   -0.58   -0.19
   0.74   -0.62   -0.12
   0.47   -0.13   -0.34
   1.40   -1.02   -0.38
   4.52   -3.95   -0.57
  11.10   -9.13   -1.97
   0.93    3.36   -4.28
  -0.66    5.06   -4.40
  -0.62    3.70   -3.08
  -7.77   10.17   -2.40
   0.59    2.13   -2.72
  -1.55    5.73   -4.17
   0.64    8.10   -8.74
   2.10   10.49  -12.60
  -7.23   -3.82   11.05
  -3.48   10.76   -7.28
   4.38    0.38   -4.76
  -1.77    2.92   -1.15
   3.15   -4.01    0.86
   3.84   -3.89    0.05
   1.39   -0.53   -0.85
   1.32   -1.75    0.42
   1.11   -2.37    1.25
   2.36   -0.24   -2.11
   0.00    0.00    0.00
   0.00    0.00    0.00
   0.00    0.00    0.00
   0.00    0.00    0.00
   0.52   -0.41   -0.11
   0.72   -0.91    0.19
   0.87   -0.66   -0.20
   0.49   -0.49   -0.01
   2.09   -0.72   -1.37
  11.39   -7.12   -4.28
   6.31    5.13  -11.44
   6.90    4.01  -10.91
  -0.07    9.75   -9.68
  -0.36    7.98   -7.62
   5.21    3.48   -8.68
  -0.42   10.96  -10.54
   6.32    9.15  -15.47
   8.13   11.32  -19.45
  -3.68   -0.82    4.50
  -0.79   12.55  -11.75
   2.30    7.37   -9.66
   2.34    5.29   -7.62
   0.40    5.31   -5.71
   9.76   -4.42   -5.34
   4.68    0.90   -5.58
   2.25   -0.06   -2.19
   9.95   -9.98    0.03
   9.34   -3.32   -6.02
   0.00    0.00    0.00
   0.00    0.00    0.00
   0.00    0.00    0.00
   0.00    0.00    0.00
   0.50   -0.67    0.17
  -0.59    0.17    0.42
  -0.07   -0.16    0.23
  -0.07    0.37   -0.30
   3.65   -5.75    2.10
   8.13   -1.16   -6.97
   1.85    9.05  -10.90
   1.81    8.68  -10.49
  -1.13   11.59  -10.46
   5.16    3.42   -8.58
   4.09    5.98  -10.07
  -1.75   12.98  -11.23
   1.74   14.59  -16.32
   3.42   17.17  -20.59
  -5.50    3.75    1.75
   7.09    6.60  -13.69
  -1.39   12.23  -10.84
   2.10    7.26   -9.36
  -0.61    6.64   -6.03
   8.87   -0.89   -7.98
   3.91    0.14   -4.05
   8.80  -12.89    4.09
   2.69   -7.17    4.48
   5.88   -9.97    4.09
   0.00    0.00    0.00
   0.00    0.00    0.00
   0.00    0.00    0.00
   0.00    0.00    0.00
  -0.10   -0.26    0.36
   0.58   -0.31   -0.27
   1.13   -1.00   -0.13
  -1.11    0.15    0.95
   2.79   -3.66    0.87
   2.35    1.43   -3.78
  13.09   -4.08   -9.02
  11.86   -2.53   -9.33
   1.83    8.43  -10.26
  11.74   -1.43  -10.31
   5.02    6.03  -11.05
   6.10    7.20  -13.30
   8.41    9.15  -17.56
  12.55    8.28  -20.84
  -1.18    1.30   -0.12
  11.57    2.31  -13.88
   9.26    3.27  -12.54
   1.35    9.88  -11.23
  -1.15    9.28   -8.14
   9.29   -1.65   -7.65
  -0.13    2.41   -2.28
  -3.28   -2.84    6.12
   3.40   -6.68    3.28
  15.64  -15.59   -0.05
   0.00    0.00    0.00
   0.00    0.00    0.00
   0.00    0.00    0.00
   0.00    0.00    0.00
   1.77   -2.25    0.48
  -0.37   -0.32    0.70
   0.31   -0.64    0.33
  -1.00    0.73    0.27
  -1.67   -1.91    3.58
   6.36   -6.68    0.32
   4.05   -0.59   -3.46
   1.13    2.92   -4.05
   6.52    3.94  -10.46
   8.36    2.18  -10.54
  -2.59   13.42  -10.82
   6.29    7.56  -13.85
   9.78   10.62  -20.40
  10.13   12.37  -22.51
  -1.97    8.00   -6.03
   0.73   16.50  -17.23
   8.56    5.70  -14.27
   7.22    1.47   -8.69
   0.53    3.20   -3.74
  -0.29    1.13   -0.83
  -4.81   -0.73    5.53
  -5.33   -4.73   10.06
  -3.52    0.13    3.38
  -5.03    3.22    1.81
   0.00    0.00    0.00
   0.00    0.00    0.00
   0.00    0.00    0.00
   0.00    0.00    0.00
   0.46   -0.30   -0.16
  -0.54    0.08    0.47
   1.31   -1.82    0.51
   2.68   -2.48   -0.21
  -6.98   -4.25   11.24
  -5.07   -4.29    9.36
  -0.06   -1.85    1.91
  -2.09   -1.16    3.25
  -6.39    5.58    0.80
   3.30   -2.00   -1.30
  -8.88   10.82   -1.95
   5.37    1.25   -6.62
   9.12    5.75  -14.87
   9.65    1.52  -11.18
  -0.20   -1.81    2.01
   5.46    5.13  -10.59
   4.76    5.56  -10.32
  -0.28    3.74   -3.45
  -5.24    1.54    3.70
  -9.53    4.27    5.27
  -1.36   -4.99    6.35
  -0.14   -3.59    3.73
   0.38   -3.16    2.78
  -5.47   -0.88    6.35
   0.00    0.00    0.00
   0.00    0.00    0.00
   0.00    0.00    0.00
   0.00    0.00    0.00
   0.15   -0.55    0.40
   0.20   -0.36    0.16
   1.24   -1.22   -0.01
  -0.01   -0.96    0.97
  -1.67   -1.48    3.15
  -2.47   -3.69    6.16
  -1.24    5.64   -4.40
  -6.00    8.16   -2.16
  -7.08    8.09   -1.02
   3.09   -5.90    2.81
   5.52   -4.33   -1.19
   6.52   -1.45   -5.07
   8.39    4.03  -12.42
  -1.82    4.38   -2.55
   8.27  -11.30    3.02
   4.66    4.19   -8.85
   6.14    0.12   -6.26
  -6.53    3.46    3.07
  -9.50    5.06    4.44
  -7.00    5.27    1.73
   2.31   -2.56    0.25
  -4.87    0.75    4.12
  -2.29   -2.33    4.61
 -12.01    6.51    5.49
   0.00    0.00    0.00
   0.00    0.00    0.00
   0.00    0.00    0.00
   0.00    0.00    0.00
   0.62   -0.80    0.18
   2.81   -2.30   -0.51
  -0.36   -0.20    0.56
  -0.12   -0.71    0.83
 -12.11   -0.24   12.35
 -10.51    1.58    8.93
   1.92    0.47   -2.38
  -7.23    9.28   -2.05
   3.26   -2.12   -1.14
   1.53   -0.23   -1.31
  -1.43    0.60    0.83
   6.08   -8.54    2.46
   8.88   -1.47   -7.41
  15.01   -1.15  -13.85
   3.34   -7.17    3.83
  -4.84    5.95   -1.11
   2.31   -4.86    2.54
  -9.42    4.32    5.10
   8.12  -12.42    4.30
  -8.86    6.83    2.04
  -9.37    7.87    1.50
 -13.69    1.32   12.36
 -13.13    2.58   10.55
 -14.32    3.84   10.48
   0.00    0.00    0.00
   0.00    0.00    0.00
   0.00    0.00    0.00
   0.00    0.00    0.00
  -0.02   -0.35    0.37
   0.84   -0.75   -0.08
   0.11   -0.21    0.10
   0.20    0.08   -0.28
 -13.74    0.06   13.68
  -3.52   -7.35   10.87
  -8.25    0.20    8.05
 -18.61    9.42    9.19
  -7.81   -1.88    9.69
   1.97   -6.63    4.66
   3.59    4.02   -7.62
   2.05    0.93   -2.98
   2.60    3.52   -6.11
   8.51    5.30  -13.81
  -0.96   -6.81    7.77
   2.93   -3.65    0.72
   5.37   -6.04    0.68
  -0.92    1.74   -0.82
  -3.81    2.86    0.95
 -11.01    5.01    6.00
 -10.57    0.08   10.50
 -12.62    5.32    7.29
  -5.12    0.66    4.46
  -3.94   -1.83    5.77
   0.00    0.00    0.00
   0.00    0.00    0.00
   0.00    0.00    0.00
   0.00    0.00    0.00
   0.93   -0.91   -0.02
   0.64   -0.97    0.33
   0.96   -0.51   -0.46
  -1.63    1.48    0.15
  -8.85    1.05    7.79
  -5.24    0.12    5.11
  -5.78    2.79    2.99
  -6.12    2.81    3.31
  -0.05   -4.36    4.41
  -7.87    6.55    1.32
   8.62   -8.36   -0.26
   5.26   -2.93   -2.32
   2.44    5.45   -7.89
   1.88    0.20   -2.08
   0.15    0.30   -0.46
   7.72   -3.58   -4.14
  -0.32    0.35   -0.03
   4.80   -2.68   -2.13
   4.37   -5.48    1.11
  -8.47    6.81    1.66
  -9.57    6.10    3.47
  -1.32   -5.27    6.58
 -12.72    4.03    8.69
 -11.10   -1.40   12.50
   0.00    0.00    0.00
   0.00    0.00    0.00
   0.00    0.00    0.00
   0.00    0.00    0.00
   0.90   -0.86   -0.05
   2.84   -2.85    0.01
   0.69   -0.97    0.28
   0.48   -0.32   -0.17
  -0.15   -7.96    8.11
  -5.76   -1.35    7.10
  -3.66   -1.48    5.13
  -6.10    2.35    3.75
   3.04   -3.06    0.02
  -5.10    7.48   -2.38
   1.15   -0.38   -0.77
  -1.11    3.65   -2.54
   9.61   -4.09   -5.52
   8.73   -6.36   -2.37
   2.68   -2.84    0.16
   5.72    1.38   -7.10
   1.77   -0.54   -1.23
   5.43   -6.43    1.00
  -7.89    6.20    1.69
 -10.20    3.89    6.31
   3.16   -2.50   -0.66
  -0.39   -0.75    1.14
  -9.22    0.52    8.70
 -10.59    1.91    8.69
   0.00    0.00    0.00
   0.00    0.00    0.00
   0.00    0.00    0.00
   0.00    0.00    0.00
   0.89   -1.23    0.35
   1.56   -1.70    0.14
   1.28   -1.20   -0.07
   1.71   -1.76    0.04
  -9.63    6.70    2.93
   1.42   -4.69    3.27
   3.74   -4.72    0.98
  -3.40    3.37    0.03
   4.67   -0.56   -4.11
  -0.84    4.13   -3.29
   3.28   -1.60   -1.68
   8.18   -1.22   -6.96
   4.81    6.05  -10.87
   5.26    7.29  -12.55
   0.79    2.07   -2.86
   6.74    3.53  -10.27
   5.71   -1.37   -4.34
  -3.34    2.11    1.22
  -2.57   -3.70    6.26
  -6.92    0.69    6.23
  -5.43    5.09    0.34
  -4.03    1.16    2.88
  -2.18   -5.09    7.27
 -12.30    2.83    9.47
   0.00    0.00    0.00
   0.00    0.00    0.00
   0.00    0.00    0.00
   0.00    0.00    0.00
   2.00   -2.25    0.25
   0.83   -0.69   -0.14
   2.24   -2.11   -0.13
   0.32   -0.97    0.65
  -0.19    0.81   -0.63
  -2.34    1.10    1.24
  -1.68    0.42    1.26
  -7.54    4.53    3.01
   1.57   -0.00   -1.57
  -7.12   11.75   -4.63
  -0.58    7.77   -7.18
   6.64    4.77  -11.41
   1.88   11.95  -13.82
   8.69    9.51  -18.20
   7.66   -0.61   -7.05
  11.52    2.72  -14.24
   9.17    1.88  -11.05
   2.52    6.04   -8.56
  11.72   -5.45   -6.27
   0.30    6.13   -6.43
   5.99   -0.58   -5.42
   4.59   -2.94   -1.66
   6.94   -6.62   -0.32
   0.42   -2.55    2.13
   0.00    0.00    0.00
   0.00    0.00    0.00
   0.00    0.00    0.00
   0.00    0.00    0.00
   0.33   -0.62    0.29
   1.72   -1.61   -0.12
   2.38   -2.38    0.00
   1.55   -1.57    0.01
   4.77   -5.94    1.18
   8.68  -12.03    3.35
  -2.62   -1.15    3.77
  -0.56   -1.20    1.75
   8.57   -4.75   -3.82
   4.42    1.72   -6.14
  -0.86    9.46   -8.60
  10.63    0.46  -11.09
  12.68    1.69  -14.37
   4.21    7.30  -11.52
   7.60    5.91  -13.51
   1.55   12.78  -14.33
   5.23    7.12  -12.34
   0.04   10.64  -10.68
  11.08   -1.50   -9.58
   5.80    5.06  -10.86
  12.18   -2.93   -9.24
   6.45   -5.22   -1.24
  -3.41    0.15    3.26
  -4.95    3.39    1.56
   0.00    0.00    0.00
   0.00    0.00    0.00
   0.00    0.00    0.00
   0.00    0.00    0.00
   0.90   -0.54   -0.36
   1.76   -2.36    0.60
   1.66   -1.98    0.32
   2.44   -2.23   -0.21
  -2.10   -7.41    9.52
  -0.74   -5.43    6.17
  -5.97    2.64    3.33
   5.53   -4.77   -0.76
   6.08   -1.49   -4.59
   4.11    1.42   -5.53
   2.86    5.73   -8.60
  -5.26   16.20  -10.93
   1.82   12.41  -14.23
   2.39   12.96  -15.36
  -4.31    8.27   -3.96
   3.06   10.92  -13.98
   1.56    8.39   -9.96
   2.93    5.34   -8.27
  10.69   -4.15   -6.55
  -8.93   18.25   -9.32
   6.60    3.25   -9.86
   8.74   -3.21   -5.52
   4.13   -1.77   -2.35
  -1.95    3.80   -1.84
   0.00    0.00    0.00
   0.00    0.00    0.00
   0.00    0.00    0.00
   0.00    0.00    0.00
   1.79   -2.00    0.22
   2.61   -2.60   -0.02
   0.79   -1.25    0.45
   0.82   -0.78   -0.04
  19.92  -18.92   -1.00
  21.48  -18.99   -2.49
   5.44   -2.34   -3.09
   4.49    0.15   -4.63
  10.51   -3.94   -6.57
   8.01   -1.04   -6.97
   2.57    5.42   -7.99
   8.93   -0.33   -8.61
   6.61    6.20  -12.81
  -6.42   14.13   -7.71
  -3.37    4.42   -1.04
  10.16    2.17  -12.33
  -3.61   12.56   -8.94
   9.13   -1.72   -7.41
   2.28    3.53   -5.80
  -1.21   10.11   -8.90
  11.70   -2.03   -9.67
  14.13   -9.30   -4.83
  14.00  -11.55   -2.45
   7.47   -6.33   -1.13
   0.00    0.00    0.00
   0.00    0.00    0.00
   0.00    0.00    0.00
   0.00    0.00    0.00
   0.99   -1.01    0.02
   2.39   -2.35   -0.04
   2.89   -2.82   -0.07
   1.67   -1.91    0.24
  23.01  -21.89   -1.12
   9.72   -8.23   -1.49
   5.47   -2.63   -2.83
  12.25  -10.51   -1.73
  12.10   -8.09   -4.01
   5.13    0.22   -5.35
  -1.13    7.39   -6.26
   2.15    5.27   -7.43
  -1.51   11.90  -10.39
  -3.04    8.18   -5.14
  -8.11    6.37    1.74
  -2.69   13.64  -10.95
  -0.06    7.73   -7.67
   5.38    0.11   -5.49
  -4.20    9.44   -5.24
   2.11    5.60   -7.71
  10.34   -4.26   -6.08
  15.92  -12.54   -3.38
  14.73  -11.67   -3.06
   6.09   -4.27   -1.82
   0.00    0.00    0.00
   0.00    0.00    0.00
   0.00    0.00    0.00
   0.00    0.00    0.00
   1.29   -1.29    0.01
   1.49   -1.71    0.22
   0.93   -0.96    0.03
   1.96   -1.68   -0.28
   6.26   -5.91   -0.35
   5.32   -3.93   -1.39
   6.94   -4.93   -2.02
   6.58   -5.35   -1.23
   5.93   -3.50   -2.44
   5.35   -2.81   -2.54
   2.50    0.77   -3.27
  -1.79    6.87   -5.07
   4.57    2.84   -7.42
  -8.66    9.61   -0.96
  -3.47    4.68   -1.21
  -5.14   12.49   -7.34
  -8.24   12.45   -4.21
  -4.29    7.09   -2.80
  -3.15    6.73   -3.58
   4.88   -1.13   -3.75
   8.68   -7.07   -1.61
  12.33  -10.31   -2.03
   9.96   -7.63   -2.32
   7.34   -6.19   -1.15
   0.00    0.00    0.00
   0.00    0.00    0.00
   0.00    0.00    0.00
   0.00    0.00    0.00
   0.00    0.00    0.00
   0.00    0.00    0.00
   0.00    0.00    0.00
   0.00    0.00    0.00
   0.00    0.00    0.00
   0.00    0.00    0.00
   0.00    0.00    0.00
   0.00    0.00    0.00
   0.00    0.00    0.00
   0.00    0.00    0.00
   0.00    0.00    0.00
   0.00    0.00    0.00
   0.00    0.00    0.00
   0.00    0.00    0.00
   0.00    0.00    0.00
   0.00    0.00    0.00
   0.00    0.00    0.00
   0.00    0.00    0.00
   0.00    0.00    0.00
   0.00    0.00    0.00
   0.00    0.00    0.00
   0.00    0.00    0.00
   0.00    0.00    0.00
   0.00    0.00    0.00
   0.00    0.00    0.00
   0.00    0.00    0.00
   0.00    0.00    0.00
   0.00    0.00    0.00
   0.00    0.00    0.00
   0.00    0.00    0.00
   0.00    0.00    0.00
   0.00    0.00    0.00
   0.00    0.00    0.00
   0.00    0.00    0.00
   0.00    0.00    0.00
   0.00    0.00    0.00
   0.00    0.00    0.00
   0.00    0.00    0.00
   0.00    0.00    0.00
   0.00    0.00    0.00
   0.00    0.00    0.00
   0.00    0.00    0.00
   0.00    0.00    0.00
   0.00    0.00    0.00
   0.00    0.00    0.00
   0.00    0.00    0.00
   0.00    0.00    0.00
   0.00    0.00    0.00
   0.00    0.00    0.00
   0.00    0.00    0.00
   0.00    0.00    0.00
   0.00    0.00    0.00
   0.00    0.00    0.00
   0.00    0.00    0.00
   0.00    0.00    0.00
   0.00    0.00    0.00
   0.00    0.00    0.00
   0.00    0.00    0.00
   0.00    0.00    0.00
   0.00    0.00    0.00
   0.00    0.00    0.00
   0.00    0.00    0.00
   0.00    0.00    0.00
   0.00    0.00    0.00
   0.00    0.00    0.00
   0.00    0.00    0.00
   0.00    0.00    0.00
   0.00    0.00    0.00
   0.00    0.00    0.00
   0.00    0.00    0.00
   0.00    0.00    0.00
   0.00    0.00    0.00
   0.00    0.00    0.00
   0.00    0.00    0.00
   0.00    0.00    0.00
   0.00    0.00    0.00
   0.00    0.00    0.00
   0.00    0.00    0.00
   0.00    0.00    0.00
   0.00    0.00    0.00
   0.00    0.00    0.00
   0.00    0.00    0.00
   0.00    0.00    0.00
   0.00    0.00    0.00
   0.00    0.00    0.00
   0.00    0.00    0.00
   0.00    0.00    0.00
   0.00    0.00    0.00
   0.00    0.00    0.00
   0.00    0.00    0.00
   0.00    0.00    0.00
   0.00    0.00    0.00
   0.00    0.00    0.00
   0.00    0.00    0.00
   0.00    0.00    0.00
   0.00    0.00    0.00
   0.00    0.00    0.00
   0.00    0.00    0.00
   0.00    0.00    0.00
   0.00    0.00    0.00
   0.00    0.00    0.00
   0.00    0.00    0.00
   0.00    0.00    0.00
   0.00    0.00    0.00
   0.00    0.00    0.00
   0.00    0.00    0.00
   0.00    0.00    0.00
   0.00    0.00    0.00
   0.00    0.00    0.00
   0.00    0.00    0.00
   0.00    0.00    0.00
   0.00    0.00    0.00
