   0.65   -0.73    0.07
   0.27   -0.04   -0.24
   0.77   -0.56   -0.20
   0.50   -0.39   -0.10
   0.55   -0.46   -0.09
   0.75   -0.60   -0.16
   0.16   -0.26    0.10
   0.60   -0.48   -0.12
  -0.25    0.71   -0.46
   0.81   -0.04   -0.77
  -0.09    0.74   -0.65
   0.24    0.14   -0.38
   0.30    0.14   -0.44
   0.17   -0.06   -0.11
  -0.77    1.48   -0.71
   0.31   -0.03   -0.28
   1.30   -1.16   -0.14
   1.96   -1.41   -0.55
   1.93   -1.57   -0.36
   1.09   -0.75   -0.34
   1.47   -1.24   -0.24
   1.34   -1.15   -0.20
   0.80   -0.44   -0.36
   1.21   -0.95   -0.26
   0.00    0.00    0.00
   0.00    0.00    0.00
   0.00    0.00    0.00
   0.00    0.00    0.00
   0.38   -0.26   -0.12
   0.76   -0.65   -0.11
   0.41   -0.18   -0.22
   0.62   -0.65    0.03
   0.76   -0.63   -0.12
   0.20   -0.10   -0.10
   1.06   -1.10    0.04
   0.94   -0.99    0.05
  -1.74    2.51   -0.78
   0.75    0.00   -0.75
   0.98   -0.80   -0.18
  -0.66    1.25   -0.59
   1.20   -0.51   -0.68
   2.20   -1.37   -0.83
  -1.08    1.48   -0.39
  -1.11    1.88   -0.77
   1.85   -1.40   -0.44
   2.70   -2.32   -0.38
   1.05   -0.59   -0.45
   2.49   -2.18   -0.31
   1.98   -1.41   -0.57
   1.86   -1.35   -0.51
   1.29   -1.51    0.22
   0.82   -0.56   -0.27
   0.00    0.00    0.00
   0.00    0.00    0.00
   0.00    0.00    0.00
   0.00    0.00    0.00
   0.55   -0.39   -0.16
   0.78   -0.59   -0.19
   0.85   -0.75   -0.10
   0.33   -0.55    0.22
   1.13   -0.83   -0.30
   1.22   -0.93   -0.29
   1.47   -1.18   -0.28
   0.36   -0.12   -0.24
   1.18   -0.56   -0.62
  -1.08    1.83   -0.76
  -0.56    1.44   -0.88
  -0.72    1.00   -0.28
  -0.29    1.27   -0.97
   0.03    0.91   -0.94
  -0.13    0.67   -0.54
   0.41    0.10   -0.51
   1.40   -1.04   -0.36
   2.70   -2.29   -0.41
   1.14   -1.03   -0.11
   1.26   -1.15   -0.11
   1.70   -1.44   -0.26
   1.42   -0.96   -0.46
   1.93   -1.51   -0.43
   1.16   -1.08   -0.08
   0.00    0.00    0.00
   0.00    0.00    0.00
   0.00    0.00    0.00
   0.00    0.00    0.00
   0.64   -0.61   -0.03
   0.45   -0.28   -0.17
   0.91   -0.69   -0.22
   0.53   -0.58    0.04
   0.79   -0.72   -0.07
   0.29   -0.66    0.38
   0.56   -0.13   -0.42
   1.30   -1.23   -0.07
   0.70    0.17   -0.87
  -1.09    1.84   -0.75
   0.48   -0.01   -0.46
   0.85   -0.13   -0.72
  -0.99    1.63   -0.64
  -0.39    0.58   -0.19
   0.74    0.20   -0.94
  -1.25    2.09   -0.84
   1.36   -0.78   -0.58
   0.75   -0.37   -0.38
   3.66   -3.12   -0.54
   2.66   -1.90   -0.76
   1.53   -1.15   -0.38
   1.53   -0.85   -0.67
   1.42   -0.93   -0.49
   2.02   -2.11    0.09
   0.00    0.00    0.00
   0.00    0.00    0.00
   0.00    0.00    0.00
   0.00    0.00    0.00
   0.27   -0.03   -0.24
   1.01   -0.83   -0.18
   0.32   -0.62    0.30
   0.14   -0.00   -0.14
   4.16   -3.71   -0.45
   5.41   -4.24   -1.17
   3.68    0.35   -4.03
   8.00   -5.23   -2.76
  -2.58    4.76   -2.18
   1.61    1.13   -2.74
  -7.70   10.54   -2.84
  -2.46    6.78   -4.33
  -3.17   10.45   -7.27
  -7.16   16.12   -8.96
  -6.53    3.48    3.06
   0.65    4.51   -5.15
  -0.67    4.48   -3.81
   6.29   -2.49   -3.79
   9.07   -7.18   -1.88
   5.04   -3.04   -2.01
   7.97   -3.89   -4.09
   8.86   -4.29   -4.57
  14.36  -12.30   -2.06
   5.78   -4.24   -1.54
   0.00    0.00    0.00
   0.00    0.00    0.00
   0.00    0.00    0.00
   0.00    0.00    0.00
  -0.23   -0.43    0.66
   0.60   -0.41   -0.19
   0.62   -0.36   -0.25
   0.93   -0.87   -0.06
   0.26   -3.59    3.33
   3.14   -7.17    4.04
  -1.00    0.71    0.29
   5.54   -5.47   -0.06
   3.83   -3.03   -0.80
   9.30   -7.43   -1.87
   4.52   -1.22   -3.30
  -2.60    9.08   -6.48
  -3.65   13.62   -9.97
  -8.12   20.41  -12.29
 -10.17   11.70   -1.53
   1.50    5.82   -7.32
   2.72    2.68   -5.40
   7.69   -5.32   -2.37
   8.86   -6.36   -2.50
  15.66  -13.67   -1.99
  11.35   -7.32   -4.03
   6.60   -3.41   -3.19
   3.99   -3.85   -0.14
   1.73   -1.57   -0.16
   0.00    0.00    0.00
   0.00    0.00    0.00
   0.00    0.00    0.00
   0.00    0.00    0.00
   0.66   -0.55   -0.11
   0.52   -0.39   -0.13
   0.48   -0.30   -0.18
   1.21   -1.05   -0.16
   3.55   -2.95   -0.60
   9.67   -8.10   -1.57
  -1.20    6.30   -5.10
   0.29    4.40   -4.69
   0.48    1.50   -1.98
 -10.80   12.35   -1.56
  -0.08    1.81   -1.73
  -3.23    6.27   -3.04
  -4.03   11.86   -7.83
  -1.18   13.18  -12.00
  -4.83    6.70   -1.87
  -1.30    8.15   -6.85
   2.15    1.97   -4.13
  -3.83    4.43   -0.60
   5.54   -6.66    1.12
   7.23   -7.62    0.39
   1.68   -1.18   -0.50
  -0.41   -0.58    0.99
   6.13   -8.05    1.92
   5.94   -5.03   -0.91
   0.00    0.00    0.00
   0.00    0.00    0.00
   0.00    0.00    0.00
   0.00    0.00    0.00
   0.32   -0.17   -0.16
   0.40   -0.69    0.29
   0.82   -0.68   -0.14
   0.54   -0.52   -0.02
   1.89   -0.69   -1.20
   9.59   -7.60   -1.99
   4.27    2.08   -6.36
   5.13    0.41   -5.54
   1.95    5.80   -7.75
  -1.15    8.44   -7.30
   1.30    7.18   -8.48
  -0.72   11.36  -10.64
   8.23    7.22  -15.45
   6.26   13.04  -19.30
   3.73    2.70   -6.43
  -0.95   12.19  -11.25
   1.95    7.72   -9.67
   3.02    5.24   -8.26
   5.76    0.72   -6.48
  11.82   -6.04   -5.78
   8.23   -2.25   -5.99
   2.54   -1.34   -1.20
   9.18  -11.46    2.29
   9.13   -3.83   -5.30
   0.00    0.00    0.00
   0.00    0.00    0.00
   0.00    0.00    0.00
   0.00    0.00    0.00
   0.54   -0.77    0.23
  -0.65    0.10    0.55
   0.25   -0.59    0.34
  -0.24    0.46   -0.22
   4.24   -6.53    2.29
   5.61   -3.73   -1.88
   0.66    6.33   -6.99
   1.18    4.76   -5.94
  -2.93   10.71   -7.78
   6.83    2.26   -9.09
   0.88    9.36  -10.24
  -2.74   14.08  -11.33
  -0.84   17.14  -16.30
   1.49   18.84  -20.34
  -4.02   12.38   -8.36
   4.72    8.47  -13.19
   0.69   10.16  -10.85
   3.00    7.32  -10.32
   0.24    6.58   -6.83
  10.13   -1.47   -8.66
   4.35   -0.98   -3.36
   4.61  -11.12    6.52
   2.50   -7.26    4.76
   6.47   -9.78    3.31
   0.00    0.00    0.00
   0.00    0.00    0.00
   0.00    0.00    0.00
   0.00    0.00    0.00
   0.19   -0.51    0.32
   0.04    0.19   -0.23
   0.95   -0.90   -0.06
  -0.75   -0.48    1.22
   3.42   -4.58    1.16
   5.08   -5.65    0.58
  11.85   -8.77   -3.08
  14.39   -7.80   -6.59
   3.73    5.95   -9.68
  12.37   -1.40  -10.97
   5.52    5.31  -10.83
   2.72   10.10  -12.82
  10.35    8.18  -18.53
   9.39   11.94  -21.33
   1.95    7.89   -9.84
  12.68    0.84  -13.52
   9.85    2.11  -11.95
  -0.81   12.07  -11.26
   0.42    8.41   -8.84
   8.20    0.17   -8.37
   1.90   -0.67   -1.22
  -0.48   -5.22    5.70
   3.65   -6.09    2.44
  11.41  -12.91    1.50
   0.00    0.00    0.00
   0.00    0.00    0.00
   0.00    0.00    0.00
   0.00    0.00    0.00
   1.63   -2.32    0.70
  -0.29   -0.54    0.83
   0.19   -1.04    0.85
  -0.72    0.62    0.10
  -1.24   -2.06    3.30
   7.63  -10.78    3.15
   3.77   -6.87    3.10
   4.16   -1.71   -2.45
  10.13    2.13  -12.26
   4.65    7.15  -11.79
   0.11   10.35  -10.46
   1.38   12.27  -13.64
  12.04    8.25  -20.29
   4.94   17.14  -22.08
   8.72    3.99  -12.71
  -4.73   21.30  -16.58
   4.29    9.49  -13.78
   5.12    3.18   -8.29
  -0.04    2.87   -2.83
   1.77    0.20   -1.98
   0.38   -4.64    4.26
  -3.93   -5.73    9.66
  -5.15    0.39    4.76
  -3.49    0.45    3.04
   0.00    0.00    0.00
   0.00    0.00    0.00
   0.00    0.00    0.00
   0.00    0.00    0.00
  -0.17    0.01    0.16
  -0.35   -0.42    0.77
   0.88   -1.45    0.57
   1.97   -1.81   -0.16
  -6.72   -3.20    9.92
  -6.07   -4.84   10.91
  -5.31   -1.26    6.56
  -3.88   -1.65    5.53
  -3.49    2.75    0.75
   1.07    1.63   -2.70
  -3.96    6.22   -2.25
   4.31    4.12   -8.43
   9.08    6.28  -15.37
  12.22    2.95  -15.18
   7.77   -0.59   -7.18
   5.94    3.97   -9.91
   8.12    0.94   -9.07
  -1.36    4.33   -2.97
 -13.70    9.50    4.20
  -6.07    1.28    4.79
  -4.03   -4.60    8.64
  -4.13   -1.01    5.14
  -0.23   -3.50    3.73
  -5.30    0.85    4.45
   0.00    0.00    0.00
   0.00    0.00    0.00
   0.00    0.00    0.00
   0.00    0.00    0.00
   0.02   -0.47    0.45
   0.22   -0.53    0.31
   0.91   -0.75   -0.16
  -0.44   -0.62    1.06
   1.23   -1.01   -0.22
  -2.10   -4.19    6.30
  -4.28    5.03   -0.75
  -5.89    4.50    1.40
  -6.15    5.91    0.24
   1.51   -4.03    2.52
   7.84   -6.39   -1.45
   8.54   -2.27   -6.27
   9.13    3.50  -12.62
   3.39    4.47   -7.85
  11.65   -7.54   -4.11
   2.88    1.60   -4.48
   7.72   -4.01   -3.71
  -3.56    0.26    3.31
  -7.21    3.66    3.54
  -9.97    7.13    2.85
  -1.45    1.47   -0.01
  -8.75    7.40    1.35
  -0.22   -3.35    3.57
 -13.13    8.59    4.54
   0.00    0.00    0.00
   0.00    0.00    0.00
   0.00    0.00    0.00
   0.00    0.00    0.00
   0.23   -0.72    0.49
   2.87   -2.23   -0.64
  -0.53   -0.27    0.80
  -0.75   -0.62    1.37
 -13.80    0.18   13.62
 -10.38   -0.54   10.93
  -0.88   -0.10    0.98
  -7.10    7.80   -0.70
   6.08   -2.96   -3.12
   1.94    1.94   -3.88
  -1.44    0.82    0.63
   7.67  -10.30    2.63
   6.95   -2.12   -4.83
  14.96   -1.74  -13.22
   7.20   -3.66   -3.54
  -5.21    5.36   -0.15
   0.20   -0.78    0.58
  -8.79    4.45    4.34
   5.43   -8.94    3.52
  -7.56    5.79    1.77
  -8.59    8.57    0.01
 -15.28    3.25   12.03
 -12.91    1.24   11.67
 -14.56    1.35   13.22
   0.00    0.00    0.00
   0.00    0.00    0.00
   0.00    0.00    0.00
   0.00    0.00    0.00
  -0.12   -0.39    0.51
   0.95   -1.02    0.07
  -0.26    0.15    0.11
   1.01   -0.84   -0.17
 -15.29   -1.91   17.20
  -9.53   -6.16   15.69
 -12.66    0.27   12.40
 -21.77    9.79   11.99
  -6.43   -4.19   10.62
   4.80  -10.41    5.61
   7.20    1.97   -9.17
   3.13   -1.67   -1.47
   2.84    3.04   -5.88
  11.11    5.77  -16.87
   3.14   -5.13    1.99
   4.80   -4.82    0.01
   2.27   -7.88    5.61
   0.82    0.36   -1.19
  -2.86    2.79    0.07
  -9.10    3.92    5.18
 -19.56    6.82   12.74
 -19.63    7.67   11.96
  -9.96    0.46    9.50
  -7.18   -2.40    9.57
   0.00    0.00    0.00
   0.00    0.00    0.00
   0.00    0.00    0.00
   0.00    0.00    0.00
   0.68   -0.70    0.02
   0.35   -0.70    0.35
   1.12   -0.58   -0.54
  -1.22    0.80    0.42
 -12.31   -0.92   13.24
  -8.68   -3.77   12.45
 -10.53    3.52    7.01
  -9.54    3.69    5.85
   0.96   -5.15    4.19
  -8.24    9.37   -1.13
   9.12   -6.35   -2.77
   5.44   -3.24   -2.19
   4.18    3.14   -7.31
   5.90    5.05  -10.94
  -1.53    0.37    1.16
  10.06   -7.24   -2.83
  -1.70    0.01    1.69
   6.58   -3.98   -2.60
   4.74   -6.49    1.75
  -8.21    4.84    3.37
 -11.25    6.88    4.37
  -3.34   -4.03    7.37
 -13.24    5.23    8.01
 -11.92   -0.99   12.91
   0.00    0.00    0.00
   0.00    0.00    0.00
   0.00    0.00    0.00
   0.00    0.00    0.00
   0.64   -0.56   -0.07
   2.13   -2.20    0.07
  -0.03   -0.35    0.38
   0.90   -0.88   -0.02
   0.18  -10.58   10.39
  -7.08   -1.83    8.91
  -4.13   -0.40    4.53
  -7.53   -0.11    7.64
   4.11   -6.78    2.66
  -4.15    5.40   -1.25
  -2.07    2.67   -0.60
   1.46    1.33   -2.79
  13.48   -5.29   -8.19
   7.65    2.03   -9.67
   3.29   -1.07   -2.22
   5.33   -0.87   -4.46
  -2.37    2.48   -0.11
   7.60   -9.38    1.78
  -2.55   -1.21    3.76
  -9.57    2.48    7.09
   2.31   -0.84   -1.47
  -1.02    2.33   -1.31
 -11.99    4.57    7.41
 -12.61    4.22    8.39
   0.00    0.00    0.00
   0.00    0.00    0.00
   0.00    0.00    0.00
   0.00    0.00    0.00
   1.02   -1.33    0.31
   1.41   -1.51    0.10
   0.61   -0.80    0.19
   1.57   -1.75    0.19
 -11.19    6.52    4.67
   2.22   -6.97    4.75
   1.14   -2.97    1.82
 -10.44    6.01    4.43
   5.95   -3.67   -2.29
   3.25    3.35   -6.61
   5.56    0.64   -6.20
  11.43   -2.98   -8.45
   6.14    6.21  -12.35
   5.94    9.17  -15.11
   6.49    1.77   -8.26
   8.30   -0.39   -7.91
   5.10   -0.73   -4.37
   2.12   -2.11   -0.01
  -3.95   -2.07    6.02
  -7.40    0.90    6.50
  -8.75    7.59    1.17
  -3.58    0.05    3.53
  -3.41   -3.95    7.36
 -10.34    0.98    9.36
   0.00    0.00    0.00
   0.00    0.00    0.00
   0.00    0.00    0.00
   0.00    0.00    0.00
   1.03   -1.48    0.45
   0.45   -0.50    0.04
   2.38   -2.18   -0.20
   0.85   -1.23    0.38
  -0.46    1.04   -0.58
  -1.71    0.03    1.68
  -3.92    0.33    3.59
  -5.47    0.24    5.23
   2.72   -0.41   -2.32
  -1.26    7.94   -6.68
   3.60    6.53  -10.13
   4.09    7.81  -11.90
   3.85   10.32  -14.17
  11.27    6.43  -17.70
   9.92    4.36  -14.28
  10.15    4.00  -14.15
   5.36    5.25  -10.61
   6.15    3.28   -9.43
  11.78   -5.26   -6.52
  -1.29    7.04   -5.75
   3.20    1.13   -4.33
   3.11   -2.01   -1.09
   8.13   -7.83   -0.30
  -0.40   -1.63    2.03
   0.00    0.00    0.00
   0.00    0.00    0.00
   0.00    0.00    0.00
   0.00    0.00    0.00
   0.50   -0.76    0.26
   2.00   -1.89   -0.11
   1.30   -1.50    0.20
   1.45   -1.77    0.32
   6.15   -7.60    1.45
   8.88  -15.31    6.43
   5.08   -9.22    4.14
  -4.80    2.88    1.92
   9.33   -4.28   -5.04
   8.12   -1.46   -6.66
   0.33    9.87  -10.21
  10.83    2.55  -13.37
  12.38    2.09  -14.48
   5.60   12.79  -18.39
   6.02    7.90  -13.91
   0.28   13.72  -14.00
  -0.05   12.33  -12.28
   0.82   10.13  -10.95
  11.40   -1.59   -9.81
   5.64    4.87  -10.51
  12.50   -3.92   -8.59
   9.36   -8.31   -1.05
  -0.64   -2.67    3.31
  -4.11    2.52    1.59
   0.00    0.00    0.00
   0.00    0.00    0.00
   0.00    0.00    0.00
   0.00    0.00    0.00
   1.19   -0.87   -0.31
   1.22   -1.65    0.43
   1.41   -1.78    0.37
   2.18   -2.13   -0.05
   0.11   -8.79    8.67
   5.33  -13.33    8.00
  -1.47   -2.41    3.88
  -0.59   -2.15    2.74
   8.04   -3.83   -4.22
   4.26    2.07   -6.33
   2.96    6.62   -9.59
   0.77    9.98  -10.76
  -0.45   14.66  -14.21
   2.39   15.88  -18.27
  -4.45   17.28  -12.83
   1.44   12.29  -13.73
   0.61    9.50  -10.11
   4.84    3.81   -8.65
  10.27   -3.12   -7.16
  -6.57   15.89   -9.33
   6.18    3.11   -9.29
  10.28   -5.19   -5.09
   4.88   -2.69   -2.19
  -1.95    3.87   -1.92
   0.00    0.00    0.00
   0.00    0.00    0.00
   0.00    0.00    0.00
   0.00    0.00    0.00
   1.16   -1.28    0.11
   2.16   -2.29    0.14
   0.76   -1.38    0.62
   0.83   -0.71   -0.12
  21.31  -20.40   -0.91
  18.36  -16.20   -2.16
   7.99   -2.18   -5.81
   7.81   -3.65   -4.16
  12.69   -5.40   -7.29
   9.12   -1.61   -7.51
   2.86    4.85   -7.71
   6.73    1.47   -8.20
   6.86    5.66  -12.51
  -6.24   23.09  -16.85
  -2.07   13.56  -11.49
   7.53    5.00  -12.53
  -2.23   11.56   -9.33
   7.02    0.90   -7.92
   2.74    3.29   -6.03
  -2.08   10.88   -8.81
  11.13   -1.89   -9.23
  14.56   -9.93   -4.63
  13.92  -11.56   -2.36
   8.43   -7.14   -1.29
   0.00    0.00    0.00
   0.00    0.00    0.00
   0.00    0.00    0.00
   0.00    0.00    0.00
   0.93   -0.77   -0.16
   2.39   -2.44    0.05
   2.61   -2.54   -0.08
   1.73   -1.83    0.10
  23.52  -22.69   -0.83
   6.66   -4.72   -1.94
   6.53   -1.35   -5.19
  11.14   -7.72   -3.42
  11.38   -6.35   -5.02
   8.27   -1.76   -6.50
   0.03    5.90   -5.93
  -2.01    8.62   -6.62
  -0.06   10.60  -10.54
  -8.69   22.40  -13.70
  -6.87   15.93   -9.06
  -0.90   11.83  -10.94
  -1.96    9.81   -7.84
   2.82    2.67   -5.49
  -1.57    7.22   -5.65
  -1.93    9.95   -8.01
   9.10   -3.26   -5.85
  15.91  -12.29   -3.63
  14.68  -11.48   -3.20
   5.90   -4.08   -1.81
   0.00    0.00    0.00
   0.00    0.00    0.00
   0.00    0.00    0.00
   0.00    0.00    0.00
   1.12   -1.05   -0.07
   1.27   -1.27    0.00
   0.88   -1.03    0.15
   1.79   -1.51   -0.28
   5.77   -5.53   -0.24
   1.34   -0.14   -1.20
   6.33   -3.09   -3.24
   1.86    0.83   -2.69
   3.29    0.46   -3.75
   4.15   -0.66   -3.49
  -2.59    5.48   -2.88
  -3.59    8.16   -4.57
  -0.34    7.18   -6.84
 -11.86   21.43   -9.57
  -1.43    5.90   -4.47
  -0.59    7.65   -7.06
 -10.57   14.80   -4.23
  -5.03    7.51   -2.48
   0.51    3.05   -3.56
   2.82    1.28   -4.11
   9.30   -7.70   -1.60
  12.73  -10.60   -2.14
  10.22   -7.75   -2.46
   7.00   -5.71   -1.29
   0.00    0.00    0.00
   0.00    0.00    0.00
   0.00    0.00    0.00
   0.00    0.00    0.00
   0.00    0.00    0.00
   0.00    0.00    0.00
   0.00    0.00    0.00
   0.00    0.00    0.00
   0.00    0.00    0.00
   0.00    0.00    0.00
   0.00    0.00    0.00
   0.00    0.00    0.00
   0.00    0.00    0.00
   0.00    0.00    0.00
   0.00    0.00    0.00
   0.00    0.00    0.00
   0.00    0.00    0.00
   0.00    0.00    0.00
   0.00    0.00    0.00
   0.00    0.00    0.00
   0.00    0.00    0.00
   0.00    0.00    0.00
   0.00    0.00    0.00
   0.00    0.00    0.00
   0.00    0.00    0.00
   0.00    0.00    0.00
   0.00    0.00    0.00
   0.00    0.00    0.00
   0.00    0.00    0.00
   0.00    0.00    0.00
   0.00    0.00    0.00
   0.00    0.00    0.00
   0.00    0.00    0.00
   0.00    0.00    0.00
   0.00    0.00    0.00
   0.00    0.00    0.00
   0.00    0.00    0.00
   0.00    0.00    0.00
   0.00    0.00    0.00
   0.00    0.00    0.00
   0.00    0.00    0.00
   0.00    0.00    0.00
   0.00    0.00    0.00
   0.00    0.00    0.00
   0.00    0.00    0.00
   0.00    0.00    0.00
   0.00    0.00    0.00
   0.00    0.00    0.00
   0.00    0.00    0.00
   0.00    0.00    0.00
   0.00    0.00    0.00
   0.00    0.00    0.00
   0.00    0.00    0.00
   0.00    0.00    0.00
   0.00    0.00    0.00
   0.00    0.00    0.00
   0.00    0.00    0.00
   0.00    0.00    0.00
   0.00    0.00    0.00
   0.00    0.00    0.00
   0.00    0.00    0.00
   0.00    0.00    0.00
   0.00    0.00    0.00
   0.00    0.00    0.00
   0.00    0.00    0.00
   0.00    0.00    0.00
   0.00    0.00    0.00
   0.00    0.00    0.00
   0.00    0.00    0.00
   0.00    0.00    0.00
   0.00    0.00    0.00
   0.00    0.00    0.00
   0.00    0.00    0.00
   0.00    0.00    0.00
   0.00    0.00    0.00
   0.00    0.00    0.00
   0.00    0.00    0.00
   0.00    0.00    0.00
   0.00    0.00    0.00
   0.00    0.00    0.00
   0.00    0.00    0.00
   0.00    0.00    0.00
   0.00    0.00    0.00
   0.00    0.00    0.00
   0.00    0.00    0.00
   0.00    0.00    0.00
   0.00    0.00    0.00
   0.00    0.00    0.00
   0.00    0.00    0.00
   0.00    0.00    0.00
   0.00    0.00    0.00
   0.00    0.00    0.00
   0.00    0.00    0.00
   0.00    0.00    0.00
   0.00    0.00    0.00
   0.00    0.00    0.00
   0.00    0.00    0.00
   0.00    0.00    0.00
   0.00    0.00    0.00
   0.00    0.00    0.00
   0.00    0.00    0.00
   0.00    0.00    0.00
   0.00    0.00    0.00
   0.00    0.00    0.00
   0.00    0.00    0.00
   0.00    0.00    0.00
   0.00    0.00    0.00
   0.00    0.00    0.00
   0.00    0.00    0.00
   0.00    0.00    0.00
   0.00    0.00    0.00
   0.00    0.00    0.00
   0.00    0.00    0.00
   0.00    0.00    0.00
   0.00    0.00    0.00
   0.00    0.00    0.00
